digraph Tree {
node [shape=box, style="filled, rounded", color="black", fontname=helvetica] ;
edge [fontname=helvetica] ;
0 [label=<depth &le; 16.482<br/>gini = 0.896<br/>samples = 2770<br/>value = [35, 155, 405, 211, 20, 361, 89, 99, 66, 151, 9<br/>20, 324, 140, 477, 22, 186]>, fillcolor="#fef9fc"] ;
1 [label=<height &le; 75.87<br/>gini = 0.687<br/>samples = 752<br/>value = [1, 26, 32, 24, 7, 313, 1, 25, 10, 3, 0, 0, 274<br/>22, 13, 1, 0]>, fillcolor="#effdf1"] ;
0 -> 1 [labeldistance=2.5, labelangle=45, headlabel="True"] ;
2 [label=<height &le; 73.588<br/>gini = 0.351<br/>samples = 390<br/>value = [0, 0, 20, 19, 0, 312, 0, 0, 0, 0, 0, 0, 9<br/>17, 13, 0, 0]>, fillcolor="#63ea7a"] ;
1 -> 2 ;
3 [label=<price &le; 59.5<br/>gini = 0.823<br/>samples = 92<br/>value = [0, 0, 20, 19, 0, 14, 0, 0, 0, 0, 0, 0, 9, 17<br/>13, 0, 0]>, fillcolor="#fefffc"] ;
2 -> 3 ;
4 [label=<width &le; 112.826<br/>gini = 0.677<br/>samples = 57<br/>value = [0, 0, 20, 19, 0, 0, 0, 0, 0, 0, 0, 0, 0, 17<br/>1, 0, 0]>, fillcolor="#fefefa"] ;
3 -> 4 ;
5 [label=<width &le; 88.611<br/>gini = 0.649<br/>samples = 49<br/>value = [0, 0, 20, 19, 0, 0, 0, 0, 0, 0, 0, 0, 0, 9<br/>1, 0, 0]>, fillcolor="#fdfef8"] ;
4 -> 5 ;
6 [label=<width &le; 54.0<br/>gini = 0.648<br/>samples = 43<br/>value = [0, 0, 20, 13, 0, 0, 0, 0, 0, 0, 0, 0, 0, 9<br/>1, 0, 0]>, fillcolor="#f4f9d1"] ;
5 -> 6 ;
7 [label=<height &le; 53.338<br/>gini = 0.678<br/>samples = 34<br/>value = [0, 0, 11, 13, 0, 0, 0, 0, 0, 0, 0, 0, 0, 9<br/>1, 0, 0]>, fillcolor="#f6fdee"] ;
6 -> 7 ;
8 [label=<designer &le; 20.5<br/>gini = 0.659<br/>samples = 33<br/>value = [0, 0, 11, 13, 0, 0, 0, 0, 0, 0, 0, 0, 0, 9<br/>0, 0, 0]>, fillcolor="#f5fded"] ;
7 -> 8 ;
9 [label=<gini = 0.64<br/>samples = 15<br/>value = [0, 0, 7, 4, 0, 0, 0, 0, 0, 0, 0, 0, 0, 4<br/>0, 0, 0]>, fillcolor="#f2f8c9"] ;
8 -> 9 ;
10 [label=<gini = 0.623<br/>samples = 18<br/>value = [0, 0, 4, 9, 0, 0, 0, 0, 0, 0, 0, 0, 0, 5<br/>0, 0, 0]>, fillcolor="#def7c2"] ;
8 -> 10 ;
11 [label=<gini = 0.0<br/>samples = 1<br/>value = [0, 0, 0, 0, 0, 0, 0, 0, 0, 0, 0, 0, 0, 0<br/>1, 0, 0]>, fillcolor="#e539a9"] ;
7 -> 11 ;
12 [label=<gini = 0.0<br/>samples = 9<br/>value = [0, 0, 9, 0, 0, 0, 0, 0, 0, 0, 0, 0, 0, 0<br/>0, 0, 0]>, fillcolor="#d1e539"] ;
6 -> 12 ;
13 [label=<gini = 0.0<br/>samples = 6<br/>value = [0, 0, 0, 6, 0, 0, 0, 0, 0, 0, 0, 0, 0, 0<br/>0, 0, 0]>, fillcolor="#95e539"] ;
5 -> 13 ;
14 [label=<gini = 0.0<br/>samples = 8<br/>value = [0, 0, 0, 0, 0, 0, 0, 0, 0, 0, 0, 0, 0, 8<br/>0, 0, 0]>, fillcolor="#e539e5"] ;
4 -> 14 ;
15 [label=<height &le; 73.088<br/>gini = 0.656<br/>samples = 35<br/>value = [0, 0, 0, 0, 0, 14, 0, 0, 0, 0, 0, 0, 9, 0<br/>12, 0, 0]>, fillcolor="#eefdf0"] ;
3 -> 15 ;
16 [label=<depth &le; 8.3<br/>gini = 0.55<br/>samples = 25<br/>value = [0, 0, 0, 0, 0, 14, 0, 0, 0, 0, 0, 0, 9, 0<br/>2, 0, 0]>, fillcolor="#c1f7ca"] ;
15 -> 16 ;
17 [label=<gini = 0.0<br/>samples = 14<br/>value = [0, 0, 0, 0, 0, 14, 0, 0, 0, 0, 0, 0, 0, 0<br/>0, 0, 0]>, fillcolor="#39e556"] ;
16 -> 17 ;
18 [label=<gini = 0.298<br/>samples = 11<br/>value = [0, 0, 0, 0, 0, 0, 0, 0, 0, 0, 0, 0, 9, 0<br/>2, 0, 0]>, fillcolor="#bc65eb"] ;
16 -> 18 ;
19 [label=<gini = 0.0<br/>samples = 10<br/>value = [0, 0, 0, 0, 0, 0, 0, 0, 0, 0, 0, 0, 0, 0<br/>10, 0, 0]>, fillcolor="#e539a9"] ;
15 -> 19 ;
20 [label=<gini = 0.0<br/>samples = 298<br/>value = [0, 0, 0, 0, 0, 298, 0, 0, 0, 0, 0, 0, 0, 0<br/>0, 0, 0]>, fillcolor="#39e556"] ;
2 -> 20 ;
21 [label=<height &le; 78.93<br/>gini = 0.451<br/>samples = 362<br/>value = [1, 26, 12, 5, 7, 1, 1, 25, 10, 3, 0, 0, 265<br/>5, 0, 1, 0]>, fillcolor="#c272ed"] ;
1 -> 21 ;
22 [label=<height &le; 77.392<br/>gini = 0.023<br/>samples = 262<br/>value = [0, 0, 0, 0, 0, 0, 0, 0, 0, 3, 0, 0, 259, 0<br/>0, 0, 0]>, fillcolor="#aa3be5"] ;
21 -> 22 ;
23 [label=<gini = 0.0<br/>samples = 3<br/>value = [0, 0, 0, 0, 0, 0, 0, 0, 0, 3, 0, 0, 0, 0<br/>0, 0, 0]>, fillcolor="#3981e5"] ;
22 -> 23 ;
24 [label=<gini = 0.0<br/>samples = 259<br/>value = [0, 0, 0, 0, 0, 0, 0, 0, 0, 0, 0, 0, 259, 0<br/>0, 0, 0]>, fillcolor="#a939e5"] ;
22 -> 24 ;
25 [label=<height &le; 79.605<br/>gini = 0.832<br/>samples = 100<br/>value = [1, 26, 12, 5, 7, 1, 1, 25, 10, 0, 0, 0, 6, 5<br/>0, 1, 0]>, fillcolor="#fffefc"] ;
21 -> 25 ;
26 [label=<gini = 0.0<br/>samples = 25<br/>value = [0, 0, 0, 0, 0, 0, 0, 25, 0, 0, 0, 0, 0, 0<br/>0, 0, 0]>, fillcolor="#39e5d1"] ;
25 -> 26 ;
27 [label=<price &le; 895.5<br/>gini = 0.812<br/>samples = 75<br/>value = [1, 26, 12, 5, 7, 1, 1, 0, 10, 0, 0, 0, 6, 5<br/>0, 1, 0]>, fillcolor="#f9f0d3"] ;
25 -> 27 ;
28 [label=<height &le; 104.904<br/>gini = 0.837<br/>samples = 47<br/>value = [1, 3, 12, 5, 7, 0, 1, 0, 10, 0, 0, 0, 2, 5<br/>0, 1, 0]>, fillcolor="#fdfef4"] ;
27 -> 28 ;
29 [label=<height &le; 85.14<br/>gini = 0.824<br/>samples = 35<br/>value = [1, 3, 0, 5, 7, 0, 1, 0, 10, 0, 0, 0, 2, 5<br/>0, 1, 0]>, fillcolor="#eaf8fc"] ;
28 -> 29 ;
30 [label=<gini = 0.735<br/>samples = 18<br/>value = [0, 3, 0, 0, 7, 0, 1, 0, 0, 0, 0, 0, 1, 5<br/>0, 1, 0]>, fillcolor="#e5fbe1"] ;
29 -> 30 ;
31 [label=<gini = 0.561<br/>samples = 17<br/>value = [1, 0, 0, 5, 0, 0, 0, 0, 10, 0, 0, 0, 1, 0<br/>0, 0, 0]>, fillcolor="#ace4f4"] ;
29 -> 31 ;
32 [label=<gini = 0.0<br/>samples = 12<br/>value = [0, 0, 12, 0, 0, 0, 0, 0, 0, 0, 0, 0, 0, 0<br/>0, 0, 0]>, fillcolor="#d1e539"] ;
28 -> 32 ;
33 [label=<width &le; 51.9<br/>gini = 0.304<br/>samples = 28<br/>value = [0, 23, 0, 0, 0, 1, 0, 0, 0, 0, 0, 0, 4, 0<br/>0, 0, 0]>, fillcolor="#eacb62"] ;
27 -> 33 ;
34 [label=<gini = 0.0<br/>samples = 22<br/>value = [0, 22, 0, 0, 0, 0, 0, 0, 0, 0, 0, 0, 0, 0<br/>0, 0, 0]>, fillcolor="#e5bd39"] ;
33 -> 34 ;
35 [label=<gini = 0.5<br/>samples = 6<br/>value = [0, 1, 0, 0, 0, 1, 0, 0, 0, 0, 0, 0, 4, 0<br/>0, 0, 0]>, fillcolor="#cb88ef"] ;
33 -> 35 ;
36 [label=<depth &le; 43.5<br/>gini = 0.877<br/>samples = 2018<br/>value = [34, 129, 373, 187, 13, 48, 88, 74, 56, 148, 9<br/>20, 50, 118, 464, 21, 186]>, fillcolor="#fef4fa"] ;
0 -> 36 [labeldistance=2.5, labelangle=-45, headlabel="False"] ;
37 [label=<name &le; 100.0<br/>gini = 0.814<br/>samples = 886<br/>value = [3, 102, 309, 151, 12, 21, 11, 43, 34, 9, 7, 15<br/>0, 109, 30, 2, 28]>, fillcolor="#f5f9d4"] ;
36 -> 37 ;
38 [label=<depth &le; 40.5<br/>gini = 0.694<br/>samples = 193<br/>value = [3, 102, 5, 8, 10, 4, 7, 3, 12, 0, 0, 0, 0<br/>17, 7, 0, 15]>, fillcolor="#f2df9f"] ;
37 -> 38 ;
39 [label=<depth &le; 38.549<br/>gini = 0.557<br/>samples = 156<br/>value = [3, 102, 5, 5, 10, 4, 3, 3, 12, 0, 0, 0, 0, 3<br/>4, 0, 2]>, fillcolor="#efd683"] ;
38 -> 39 ;
40 [label=<depth &le; 20.782<br/>gini = 0.857<br/>samples = 44<br/>value = [2, 1, 5, 4, 9, 3, 1, 2, 11, 0, 0, 0, 0, 3<br/>2, 0, 1]>, fillcolor="#f4fbfe"] ;
39 -> 40 ;
41 [label=<gini = 0.0<br/>samples = 8<br/>value = [0, 0, 0, 0, 8, 0, 0, 0, 0, 0, 0, 0, 0, 0<br/>0, 0, 0]>, fillcolor="#58e539"] ;
40 -> 41 ;
42 [label=<name &le; 37.0<br/>gini = 0.849<br/>samples = 36<br/>value = [2, 1, 5, 4, 1, 3, 1, 2, 11, 0, 0, 0, 0, 3<br/>2, 0, 1]>, fillcolor="#d9f2fa"] ;
40 -> 42 ;
43 [label=<height &le; 181.5<br/>gini = 0.878<br/>samples = 24<br/>value = [2, 1, 5, 4, 1, 3, 1, 1, 1, 0, 0, 0, 0, 3<br/>1, 0, 1]>, fillcolor="#fdfef5"] ;
42 -> 43 ;
44 [label=<gini = 0.876<br/>samples = 13<br/>value = [2, 1, 0, 1, 1, 3, 1, 1, 1, 0, 0, 0, 0, 0<br/>1, 0, 1]>, fillcolor="#edfdf0"] ;
43 -> 44 ;
45 [label=<gini = 0.645<br/>samples = 11<br/>value = [0, 0, 5, 3, 0, 0, 0, 0, 0, 0, 0, 0, 0, 3<br/>0, 0, 0]>, fillcolor="#f4f8ce"] ;
43 -> 45 ;
46 [label=<gini = 0.292<br/>samples = 12<br/>value = [0, 0, 0, 0, 0, 0, 0, 1, 10, 0, 0, 0, 0, 0<br/>1, 0, 0]>, fillcolor="#5dc9ea"] ;
42 -> 46 ;
47 [label=<depth &le; 39.549<br/>gini = 0.186<br/>samples = 112<br/>value = [1, 101, 0, 1, 1, 1, 2, 1, 1, 0, 0, 0, 0, 0<br/>2, 0, 1]>, fillcolor="#e8c44d"] ;
39 -> 47 ;
48 [label=<gini = 0.0<br/>samples = 95<br/>value = [0, 95, 0, 0, 0, 0, 0, 0, 0, 0, 0, 0, 0, 0<br/>0, 0, 0]>, fillcolor="#e5bd39"] ;
47 -> 48 ;
49 [label=<gini = 0.824<br/>samples = 17<br/>value = [1, 6, 0, 1, 1, 1, 2, 1, 1, 0, 0, 0, 0, 0<br/>2, 0, 1]>, fillcolor="#f8edca"] ;
47 -> 49 ;
50 [label=<width &le; 100.0<br/>gini = 0.709<br/>samples = 37<br/>value = [0, 0, 0, 3, 0, 0, 4, 0, 0, 0, 0, 0, 0, 14<br/>3, 0, 13]>, fillcolor="#fef7fe"] ;
38 -> 50 ;
51 [label=<gini = 0.736<br/>samples = 12<br/>value = [0, 0, 0, 3, 0, 0, 4, 0, 0, 0, 0, 0, 0, 0<br/>2, 0, 3]>, fillcolor="#e9fcf3"] ;
50 -> 51 ;
52 [label=<name &le; 27.0<br/>gini = 0.525<br/>samples = 25<br/>value = [0, 0, 0, 0, 0, 0, 0, 0, 0, 0, 0, 0, 0, 14<br/>1, 0, 10]>, fillcolor="#f8caf8"] ;
50 -> 52 ;
53 [label=<gini = 0.0<br/>samples = 8<br/>value = [0, 0, 0, 0, 0, 0, 0, 0, 0, 0, 0, 0, 0, 8<br/>0, 0, 0]>, fillcolor="#e539e5"] ;
52 -> 53 ;
54 [label=<gini = 0.526<br/>samples = 17<br/>value = [0, 0, 0, 0, 0, 0, 0, 0, 0, 0, 0, 0, 0, 6<br/>1, 0, 10]>, fillcolor="#f6bab7"] ;
52 -> 54 ;
55 [label=<name &le; 194.0<br/>gini = 0.74<br/>samples = 693<br/>value = [0, 0, 304, 143, 2, 17, 4, 40, 22, 9, 7, 15, 0<br/>92, 23, 2, 13]>, fillcolor="#f2f7c5"] ;
37 -> 55 ;
56 [label=<name &le; 118.0<br/>gini = 0.625<br/>samples = 568<br/>value = [0, 0, 304, 143, 0, 0, 1, 0, 0, 0, 5, 14, 0<br/>89, 11, 0, 1]>, fillcolor="#eef5b4"] ;
55 -> 56 ;
57 [label=<name &le; 116.5<br/>gini = 0.349<br/>samples = 175<br/>value = [0, 0, 140, 14, 0, 0, 0, 0, 0, 0, 5, 2, 0, 5<br/>9, 0, 0]>, fillcolor="#dbeb64"] ;
56 -> 57 ;
58 [label=<depth &le; 34.951<br/>gini = 0.294<br/>samples = 134<br/>value = [0, 0, 112, 3, 0, 0, 0, 0, 0, 0, 5, 1, 0, 5<br/>8, 0, 0]>, fillcolor="#d9ea5c"] ;
57 -> 58 ;
59 [label=<height &le; 94.5<br/>gini = 0.109<br/>samples = 70<br/>value = [0, 0, 66, 3, 0, 0, 0, 0, 0, 0, 0, 0, 0, 1<br/>0, 0, 0]>, fillcolor="#d4e745"] ;
58 -> 59 ;
60 [label=<gini = 0.292<br/>samples = 12<br/>value = [0, 0, 10, 1, 0, 0, 0, 0, 0, 0, 0, 0, 0, 1<br/>0, 0, 0]>, fillcolor="#d9ea5d"] ;
59 -> 60 ;
61 [label=<designer &le; 74.0<br/>gini = 0.067<br/>samples = 58<br/>value = [0, 0, 56, 2, 0, 0, 0, 0, 0, 0, 0, 0, 0, 0<br/>0, 0, 0]>, fillcolor="#d3e640"] ;
59 -> 61 ;
62 [label=<gini = 0.0<br/>samples = 42<br/>value = [0, 0, 42, 0, 0, 0, 0, 0, 0, 0, 0, 0, 0, 0<br/>0, 0, 0]>, fillcolor="#d1e539"] ;
61 -> 62 ;
63 [label=<gini = 0.219<br/>samples = 16<br/>value = [0, 0, 14, 2, 0, 0, 0, 0, 0, 0, 0, 0, 0, 0<br/>0, 0, 0]>, fillcolor="#d8e955"] ;
61 -> 63 ;
64 [label=<height &le; 76.0<br/>gini = 0.458<br/>samples = 64<br/>value = [0, 0, 46, 0, 0, 0, 0, 0, 0, 0, 5, 1, 0, 4<br/>8, 0, 0]>, fillcolor="#e0ed79"] ;
58 -> 64 ;
65 [label=<gini = 0.642<br/>samples = 9<br/>value = [0, 0, 3, 0, 0, 0, 0, 0, 0, 0, 0, 0, 0, 2<br/>4, 0, 0]>, fillcolor="#fbdef1"] ;
64 -> 65 ;
66 [label=<height &le; 181.5<br/>gini = 0.374<br/>samples = 55<br/>value = [0, 0, 43, 0, 0, 0, 0, 0, 0, 0, 5, 1, 0, 2<br/>4, 0, 0]>, fillcolor="#dceb69"] ;
64 -> 66 ;
67 [label=<price &le; 614.5<br/>gini = 0.331<br/>samples = 53<br/>value = [0, 0, 43, 0, 0, 0, 0, 0, 0, 0, 3, 1, 0, 2<br/>4, 0, 0]>, fillcolor="#daea61"] ;
66 -> 67 ;
68 [label=<width &le; 78.5<br/>gini = 0.074<br/>samples = 26<br/>value = [0, 0, 25, 0, 0, 0, 0, 0, 0, 0, 0, 1, 0, 0<br/>0, 0, 0]>, fillcolor="#d3e641"] ;
67 -> 68 ;
69 [label=<gini = 0.198<br/>samples = 9<br/>value = [0, 0, 8, 0, 0, 0, 0, 0, 0, 0, 0, 1, 0, 0<br/>0, 0, 0]>, fillcolor="#d7e852"] ;
68 -> 69 ;
70 [label=<gini = 0.0<br/>samples = 17<br/>value = [0, 0, 17, 0, 0, 0, 0, 0, 0, 0, 0, 0, 0, 0<br/>0, 0, 0]>, fillcolor="#d1e539"] ;
68 -> 70 ;
71 [label=<height &le; 154.0<br/>gini = 0.516<br/>samples = 27<br/>value = [0, 0, 18, 0, 0, 0, 0, 0, 0, 0, 3, 0, 0, 2<br/>4, 0, 0]>, fillcolor="#e3ef86"] ;
67 -> 71 ;
72 [label=<gini = 0.612<br/>samples = 7<br/>value = [0, 0, 3, 0, 0, 0, 0, 0, 0, 0, 3, 0, 0, 1<br/>0, 0, 0]>, fillcolor="#ffffff"] ;
71 -> 72 ;
73 [label=<width &le; 88.0<br/>gini = 0.395<br/>samples = 20<br/>value = [0, 0, 15, 0, 0, 0, 0, 0, 0, 0, 0, 0, 0, 1<br/>4, 0, 0]>, fillcolor="#dfed77"] ;
71 -> 73 ;
74 [label=<gini = 0.444<br/>samples = 3<br/>value = [0, 0, 1, 0, 0, 0, 0, 0, 0, 0, 0, 0, 0, 0<br/>2, 0, 0]>, fillcolor="#f29cd4"] ;
73 -> 74 ;
75 [label=<gini = 0.304<br/>samples = 17<br/>value = [0, 0, 14, 0, 0, 0, 0, 0, 0, 0, 0, 0, 0, 1<br/>2, 0, 0]>, fillcolor="#daea61"] ;
73 -> 75 ;
76 [label=<gini = 0.0<br/>samples = 2<br/>value = [0, 0, 0, 0, 0, 0, 0, 0, 0, 0, 2, 0, 0, 0<br/>0, 0, 0]>, fillcolor="#3944e5"] ;
66 -> 76 ;
77 [label=<price &le; 106.5<br/>gini = 0.46<br/>samples = 41<br/>value = [0, 0, 28, 11, 0, 0, 0, 0, 0, 0, 0, 1, 0, 0<br/>1, 0, 0]>, fillcolor="#e5f08f"] ;
57 -> 77 ;
78 [label=<gini = 0.198<br/>samples = 9<br/>value = [0, 0, 8, 0, 0, 0, 0, 0, 0, 0, 0, 0, 0, 0<br/>1, 0, 0]>, fillcolor="#d7e852"] ;
77 -> 78 ;
79 [label=<price &le; 223.0<br/>gini = 0.49<br/>samples = 32<br/>value = [0, 0, 20, 11, 0, 0, 0, 0, 0, 0, 0, 1, 0, 0<br/>0, 0, 0]>, fillcolor="#ebf4aa"] ;
77 -> 79 ;
80 [label=<gini = 0.0<br/>samples = 4<br/>value = [0, 0, 0, 4, 0, 0, 0, 0, 0, 0, 0, 0, 0, 0<br/>0, 0, 0]>, fillcolor="#95e539"] ;
79 -> 80 ;
81 [label=<height &le; 76.0<br/>gini = 0.426<br/>samples = 28<br/>value = [0, 0, 20, 7, 0, 0, 0, 0, 0, 0, 0, 1, 0, 0<br/>0, 0, 0]>, fillcolor="#e3ef84"] ;
79 -> 81 ;
82 [label=<gini = 0.165<br/>samples = 11<br/>value = [0, 0, 10, 1, 0, 0, 0, 0, 0, 0, 0, 0, 0, 0<br/>0, 0, 0]>, fillcolor="#d6e84d"] ;
81 -> 82 ;
83 [label=<gini = 0.526<br/>samples = 17<br/>value = [0, 0, 10, 6, 0, 0, 0, 0, 0, 0, 0, 1, 0, 0<br/>0, 0, 0]>, fillcolor="#eef6b7"] ;
81 -> 83 ;
84 [label=<name &le; 182.5<br/>gini = 0.671<br/>samples = 393<br/>value = [0, 0, 164, 129, 0, 0, 1, 0, 0, 0, 0, 12, 0<br/>84, 2, 0, 1]>, fillcolor="#f9fce5"] ;
56 -> 84 ;
85 [label=<depth &le; 34.349<br/>gini = 0.661<br/>samples = 363<br/>value = [0, 0, 164, 104, 0, 0, 1, 0, 0, 0, 0, 9, 0<br/>83, 2, 0, 0]>, fillcolor="#f4f9d1"] ;
84 -> 85 ;
86 [label=<depth &le; 33.397<br/>gini = 0.664<br/>samples = 131<br/>value = [0, 0, 32, 53, 0, 0, 1, 0, 0, 0, 0, 0, 0, 44<br/>1, 0, 0]>, fillcolor="#f4fceb"] ;
85 -> 86 ;
87 [label=<depth &le; 30.317<br/>gini = 0.622<br/>samples = 91<br/>value = [0, 0, 32, 13, 0, 0, 1, 0, 0, 0, 0, 0, 0, 44<br/>1, 0, 0]>, fillcolor="#fad7fa"] ;
86 -> 87 ;
88 [label=<height &le; 85.0<br/>gini = 0.541<br/>samples = 50<br/>value = [0, 0, 31, 13, 0, 0, 1, 0, 0, 0, 0, 0, 0, 4<br/>1, 0, 0]>, fillcolor="#e9f29f"] ;
87 -> 88 ;
89 [label=<gini = 0.76<br/>samples = 10<br/>value = [0, 0, 3, 2, 0, 0, 1, 0, 0, 0, 0, 0, 0, 3<br/>1, 0, 0]>, fillcolor="#ffffff"] ;
88 -> 89 ;
90 [label=<designer &le; 82.0<br/>gini = 0.434<br/>samples = 40<br/>value = [0, 0, 28, 11, 0, 0, 0, 0, 0, 0, 0, 0, 0, 1<br/>0, 0, 0]>, fillcolor="#e4f08b"] ;
88 -> 90 ;
91 [label=<designer &le; 47.0<br/>gini = 0.526<br/>samples = 23<br/>value = [0, 0, 13, 9, 0, 0, 0, 0, 0, 0, 0, 0, 0, 1<br/>0, 0, 0]>, fillcolor="#f2f8c6"] ;
90 -> 91 ;
92 [label=<gini = 0.278<br/>samples = 6<br/>value = [0, 0, 5, 0, 0, 0, 0, 0, 0, 0, 0, 0, 0, 1<br/>0, 0, 0]>, fillcolor="#daea61"] ;
91 -> 92 ;
93 [label=<gini = 0.498<br/>samples = 17<br/>value = [0, 0, 8, 9, 0, 0, 0, 0, 0, 0, 0, 0, 0, 0<br/>0, 0, 0]>, fillcolor="#f3fce9"] ;
91 -> 93 ;
94 [label=<gini = 0.208<br/>samples = 17<br/>value = [0, 0, 15, 2, 0, 0, 0, 0, 0, 0, 0, 0, 0, 0<br/>0, 0, 0]>, fillcolor="#d7e853"] ;
90 -> 94 ;
95 [label=<depth &le; 31.817<br/>gini = 0.048<br/>samples = 41<br/>value = [0, 0, 1, 0, 0, 0, 0, 0, 0, 0, 0, 0, 0, 40<br/>0, 0, 0]>, fillcolor="#e63ee6"] ;
87 -> 95 ;
96 [label=<gini = 0.0<br/>samples = 40<br/>value = [0, 0, 0, 0, 0, 0, 0, 0, 0, 0, 0, 0, 0, 40<br/>0, 0, 0]>, fillcolor="#e539e5"] ;
95 -> 96 ;
97 [label=<gini = 0.0<br/>samples = 1<br/>value = [0, 0, 1, 0, 0, 0, 0, 0, 0, 0, 0, 0, 0, 0<br/>0, 0, 0]>, fillcolor="#d1e539"] ;
95 -> 97 ;
98 [label=<gini = 0.0<br/>samples = 40<br/>value = [0, 0, 0, 40, 0, 0, 0, 0, 0, 0, 0, 0, 0, 0<br/>0, 0, 0]>, fillcolor="#95e539"] ;
86 -> 98 ;
99 [label=<name &le; 126.0<br/>gini = 0.598<br/>samples = 232<br/>value = [0, 0, 132, 51, 0, 0, 0, 0, 0, 0, 0, 9, 0, 39<br/>1, 0, 0]>, fillcolor="#eaf3a6"] ;
85 -> 99 ;
100 [label=<depth &le; 35.451<br/>gini = 0.688<br/>samples = 129<br/>value = [0, 0, 46, 40, 0, 0, 0, 0, 0, 0, 0, 5, 0, 38<br/>0, 0, 0]>, fillcolor="#fcfdf2"] ;
99 -> 100 ;
101 [label=<gini = 0.0<br/>samples = 5<br/>value = [0, 0, 5, 0, 0, 0, 0, 0, 0, 0, 0, 0, 0, 0<br/>0, 0, 0]>, fillcolor="#d1e539"] ;
100 -> 101 ;
102 [label=<width &le; 46.5<br/>gini = 0.691<br/>samples = 124<br/>value = [0, 0, 41, 40, 0, 0, 0, 0, 0, 0, 0, 5, 0, 38<br/>0, 0, 0]>, fillcolor="#fefffd"] ;
100 -> 102 ;
103 [label=<gini = 0.0<br/>samples = 1<br/>value = [0, 0, 0, 0, 0, 0, 0, 0, 0, 0, 0, 1, 0, 0<br/>0, 0, 0]>, fillcolor="#6a39e5"] ;
102 -> 103 ;
104 [label=<height &le; 235.0<br/>gini = 0.687<br/>samples = 123<br/>value = [0, 0, 41, 40, 0, 0, 0, 0, 0, 0, 0, 4, 0, 38<br/>0, 0, 0]>, fillcolor="#fefffd"] ;
102 -> 104 ;
105 [label=<designer &le; 244.5<br/>gini = 0.682<br/>samples = 121<br/>value = [0, 0, 40, 40, 0, 0, 0, 0, 0, 0, 0, 3, 0, 38<br/>0, 0, 0]>, fillcolor="#ffffff"] ;
104 -> 105 ;
106 [label=<designer &le; 122.0<br/>gini = 0.682<br/>samples = 120<br/>value = [0, 0, 40, 40, 0, 0, 0, 0, 0, 0, 0, 3, 0, 37<br/>0, 0, 0]>, fillcolor="#ffffff"] ;
105 -> 106 ;
107 [label=<price &le; 2672.5<br/>gini = 0.682<br/>samples = 119<br/>value = [0, 0, 40, 39, 0, 0, 0, 0, 0, 0, 0, 3, 0, 37<br/>0, 0, 0]>, fillcolor="#fefffd"] ;
106 -> 107 ;
108 [label=<price &le; 2502.25<br/>gini = 0.683<br/>samples = 111<br/>value = [0, 0, 39, 35, 0, 0, 0, 0, 0, 0, 0, 3, 0, 34<br/>0, 0, 0]>, fillcolor="#fdfef5"] ;
107 -> 108 ;
109 [label=<price &le; 1599.0<br/>gini = 0.684<br/>samples = 108<br/>value = [0, 0, 37, 34, 0, 0, 0, 0, 0, 0, 0, 3, 0, 34<br/>0, 0, 0]>, fillcolor="#fdfef7"] ;
108 -> 109 ;
110 [label=<price &le; 1270.0<br/>gini = 0.679<br/>samples = 91<br/>value = [0, 0, 31, 31, 0, 0, 0, 0, 0, 0, 0, 2, 0, 27<br/>0, 0, 0]>, fillcolor="#ffffff"] ;
109 -> 110 ;
111 [label=<height &le; 111.47<br/>gini = 0.679<br/>samples = 74<br/>value = [0, 0, 28, 22, 0, 0, 0, 0, 0, 0, 0, 2, 0, 22<br/>0, 0, 0]>, fillcolor="#fafce8"] ;
110 -> 111 ;
112 [label=<height &le; 90.166<br/>gini = 0.678<br/>samples = 54<br/>value = [0, 0, 17, 18, 0, 0, 0, 0, 0, 0, 0, 1, 0, 18<br/>0, 0, 0]>, fillcolor="#ffffff"] ;
111 -> 112 ;
113 [label=<height &le; 77.261<br/>gini = 0.676<br/>samples = 50<br/>value = [0, 0, 17, 14, 0, 0, 0, 0, 0, 0, 0, 1, 0, 18<br/>0, 0, 0]>, fillcolor="#fef9fe"] ;
112 -> 113 ;
114 [label=<price &le; 1152.5<br/>gini = 0.677<br/>samples = 45<br/>value = [0, 0, 17, 14, 0, 0, 0, 0, 0, 0, 0, 1, 0, 13<br/>0, 0, 0]>, fillcolor="#fbfcec"] ;
113 -> 114 ;
115 [label=<price &le; 995.0<br/>gini = 0.68<br/>samples = 43<br/>value = [0, 0, 15, 14, 0, 0, 0, 0, 0, 0, 0, 1, 0, 13<br/>0, 0, 0]>, fillcolor="#fdfef8"] ;
114 -> 115 ;
116 [label=<name &le; 122.0<br/>gini = 0.677<br/>samples = 41<br/>value = [0, 0, 15, 14, 0, 0, 0, 0, 0, 0, 0, 1, 0, 11<br/>0, 0, 0]>, fillcolor="#fdfef8"] ;
115 -> 116 ;
117 [label=<designer &le; 108.5<br/>gini = 0.674<br/>samples = 40<br/>value = [0, 0, 15, 14, 0, 0, 0, 0, 0, 0, 0, 1, 0, 10<br/>0, 0, 0]>, fillcolor="#fdfef7"] ;
116 -> 117 ;
118 [label=<depth &le; 41.0<br/>gini = 0.672<br/>samples = 38<br/>value = [0, 0, 14, 14, 0, 0, 0, 0, 0, 0, 0, 1, 0, 9<br/>0, 0, 0]>, fillcolor="#ffffff"] ;
117 -> 118 ;
119 [label=<height &le; 69.0<br/>gini = 0.688<br/>samples = 25<br/>value = [0, 0, 8, 9, 0, 0, 0, 0, 0, 0, 0, 1, 0, 7<br/>0, 0, 0]>, fillcolor="#f9fdf3"] ;
118 -> 119 ;
120 [label=<price &le; 492.5<br/>gini = 0.663<br/>samples = 24<br/>value = [0, 0, 8, 9, 0, 0, 0, 0, 0, 0, 0, 0, 0, 7<br/>0, 0, 0]>, fillcolor="#f8fdf3"] ;
119 -> 120 ;
121 [label=<height &le; 51.0<br/>gini = 0.649<br/>samples = 21<br/>value = [0, 0, 7, 9, 0, 0, 0, 0, 0, 0, 0, 0, 0, 5<br/>0, 0, 0]>, fillcolor="#f0fbe3"] ;
120 -> 121 ;
122 [label=<gini = 0.64<br/>samples = 15<br/>value = [0, 0, 6, 6, 0, 0, 0, 0, 0, 0, 0, 0, 0, 3<br/>0, 0, 0]>, fillcolor="#ffffff"] ;
121 -> 122 ;
123 [label=<gini = 0.611<br/>samples = 6<br/>value = [0, 0, 1, 3, 0, 0, 0, 0, 0, 0, 0, 0, 0, 2<br/>0, 0, 0]>, fillcolor="#e4f8ce"] ;
121 -> 123 ;
124 [label=<gini = 0.444<br/>samples = 3<br/>value = [0, 0, 1, 0, 0, 0, 0, 0, 0, 0, 0, 0, 0, 2<br/>0, 0, 0]>, fillcolor="#f29cf2"] ;
120 -> 124 ;
125 [label=<gini = 0.0<br/>samples = 1<br/>value = [0, 0, 0, 0, 0, 0, 0, 0, 0, 0, 0, 1, 0, 0<br/>0, 0, 0]>, fillcolor="#6a39e5"] ;
119 -> 125 ;
126 [label=<gini = 0.615<br/>samples = 13<br/>value = [0, 0, 6, 5, 0, 0, 0, 0, 0, 0, 0, 0, 0, 2<br/>0, 0, 0]>, fillcolor="#f9fce6"] ;
118 -> 126 ;
127 [label=<gini = 0.5<br/>samples = 2<br/>value = [0, 0, 1, 0, 0, 0, 0, 0, 0, 0, 0, 0, 0, 1<br/>0, 0, 0]>, fillcolor="#ffffff"] ;
117 -> 127 ;
128 [label=<gini = 0.0<br/>samples = 1<br/>value = [0, 0, 0, 0, 0, 0, 0, 0, 0, 0, 0, 0, 0, 1<br/>0, 0, 0]>, fillcolor="#e539e5"] ;
116 -> 128 ;
129 [label=<gini = 0.0<br/>samples = 2<br/>value = [0, 0, 0, 0, 0, 0, 0, 0, 0, 0, 0, 0, 0, 2<br/>0, 0, 0]>, fillcolor="#e539e5"] ;
115 -> 129 ;
130 [label=<gini = 0.0<br/>samples = 2<br/>value = [0, 0, 2, 0, 0, 0, 0, 0, 0, 0, 0, 0, 0, 0<br/>0, 0, 0]>, fillcolor="#d1e539"] ;
114 -> 130 ;
131 [label=<gini = 0.0<br/>samples = 5<br/>value = [0, 0, 0, 0, 0, 0, 0, 0, 0, 0, 0, 0, 0, 5<br/>0, 0, 0]>, fillcolor="#e539e5"] ;
113 -> 131 ;
132 [label=<gini = 0.0<br/>samples = 4<br/>value = [0, 0, 0, 4, 0, 0, 0, 0, 0, 0, 0, 0, 0, 0<br/>0, 0, 0]>, fillcolor="#95e539"] ;
112 -> 132 ;
133 [label=<height &le; 125.566<br/>gini = 0.615<br/>samples = 20<br/>value = [0, 0, 11, 4, 0, 0, 0, 0, 0, 0, 0, 1, 0, 4<br/>0, 0, 0]>, fillcolor="#ebf4a8"] ;
111 -> 133 ;
134 [label=<gini = 0.0<br/>samples = 6<br/>value = [0, 0, 6, 0, 0, 0, 0, 0, 0, 0, 0, 0, 0, 0<br/>0, 0, 0]>, fillcolor="#d1e539"] ;
133 -> 134 ;
135 [label=<gini = 0.704<br/>samples = 14<br/>value = [0, 0, 5, 4, 0, 0, 0, 0, 0, 0, 0, 1, 0, 4<br/>0, 0, 0]>, fillcolor="#fafceb"] ;
133 -> 135 ;
136 [label=<gini = 0.602<br/>samples = 17<br/>value = [0, 0, 3, 9, 0, 0, 0, 0, 0, 0, 0, 0, 0, 5<br/>0, 0, 0]>, fillcolor="#dcf6bd"] ;
110 -> 136 ;
137 [label=<gini = 0.671<br/>samples = 17<br/>value = [0, 0, 6, 3, 0, 0, 0, 0, 0, 0, 0, 1, 0, 7<br/>0, 0, 0]>, fillcolor="#fdedfd"] ;
109 -> 137 ;
138 [label=<gini = 0.444<br/>samples = 3<br/>value = [0, 0, 2, 1, 0, 0, 0, 0, 0, 0, 0, 0, 0, 0<br/>0, 0, 0]>, fillcolor="#e8f29c"] ;
108 -> 138 ;
139 [label=<gini = 0.594<br/>samples = 8<br/>value = [0, 0, 1, 4, 0, 0, 0, 0, 0, 0, 0, 0, 0, 3<br/>0, 0, 0]>, fillcolor="#eafad7"] ;
107 -> 139 ;
140 [label=<gini = 0.0<br/>samples = 1<br/>value = [0, 0, 0, 1, 0, 0, 0, 0, 0, 0, 0, 0, 0, 0<br/>0, 0, 0]>, fillcolor="#95e539"] ;
106 -> 140 ;
141 [label=<gini = 0.0<br/>samples = 1<br/>value = [0, 0, 0, 0, 0, 0, 0, 0, 0, 0, 0, 0, 0, 1<br/>0, 0, 0]>, fillcolor="#e539e5"] ;
105 -> 141 ;
142 [label=<gini = 0.5<br/>samples = 2<br/>value = [0, 0, 1, 0, 0, 0, 0, 0, 0, 0, 0, 1, 0, 0<br/>0, 0, 0]>, fillcolor="#ffffff"] ;
104 -> 142 ;
143 [label=<price &le; 875.0<br/>gini = 0.29<br/>samples = 103<br/>value = [0, 0, 86, 11, 0, 0, 0, 0, 0, 0, 0, 4, 0, 1<br/>1, 0, 0]>, fillcolor="#daea5e"] ;
99 -> 143 ;
144 [label=<depth &le; 41.05<br/>gini = 0.07<br/>samples = 83<br/>value = [0, 0, 80, 2, 0, 0, 0, 0, 0, 0, 0, 1, 0, 0<br/>0, 0, 0]>, fillcolor="#d3e640"] ;
143 -> 144 ;
145 [label=<height &le; 13.65<br/>gini = 0.048<br/>samples = 82<br/>value = [0, 0, 80, 2, 0, 0, 0, 0, 0, 0, 0, 0, 0, 0<br/>0, 0, 0]>, fillcolor="#d2e63e"] ;
144 -> 145 ;
146 [label=<gini = 0.298<br/>samples = 11<br/>value = [0, 0, 9, 2, 0, 0, 0, 0, 0, 0, 0, 0, 0, 0<br/>0, 0, 0]>, fillcolor="#dbeb65"] ;
145 -> 146 ;
147 [label=<gini = 0.0<br/>samples = 71<br/>value = [0, 0, 71, 0, 0, 0, 0, 0, 0, 0, 0, 0, 0, 0<br/>0, 0, 0]>, fillcolor="#d1e539"] ;
145 -> 147 ;
148 [label=<gini = 0.0<br/>samples = 1<br/>value = [0, 0, 0, 0, 0, 0, 0, 0, 0, 0, 0, 1, 0, 0<br/>0, 0, 0]>, fillcolor="#6a39e5"] ;
144 -> 148 ;
149 [label=<name &le; 138.0<br/>gini = 0.68<br/>samples = 20<br/>value = [0, 0, 6, 9, 0, 0, 0, 0, 0, 0, 0, 3, 0, 1<br/>1, 0, 0]>, fillcolor="#e8f9d5"] ;
143 -> 149 ;
150 [label=<gini = 0.0<br/>samples = 5<br/>value = [0, 0, 5, 0, 0, 0, 0, 0, 0, 0, 0, 0, 0, 0<br/>0, 0, 0]>, fillcolor="#d1e539"] ;
149 -> 150 ;
151 [label=<gini = 0.587<br/>samples = 15<br/>value = [0, 0, 1, 9, 0, 0, 0, 0, 0, 0, 0, 3, 0, 1<br/>1, 0, 0]>, fillcolor="#caf29c"] ;
149 -> 151 ;
152 [label=<designer &le; 3.0<br/>gini = 0.293<br/>samples = 30<br/>value = [0, 0, 0, 25, 0, 0, 0, 0, 0, 0, 0, 3, 0, 1<br/>0, 0, 1]>, fillcolor="#a9ea5e"] ;
84 -> 152 ;
153 [label=<gini = 0.5<br/>samples = 2<br/>value = [0, 0, 0, 0, 0, 0, 0, 0, 0, 0, 0, 1, 0, 1<br/>0, 0, 0]>, fillcolor="#ffffff"] ;
152 -> 153 ;
154 [label=<depth &le; 42.5<br/>gini = 0.196<br/>samples = 28<br/>value = [0, 0, 0, 25, 0, 0, 0, 0, 0, 0, 0, 2, 0, 0<br/>0, 0, 1]>, fillcolor="#a1e850"] ;
152 -> 154 ;
155 [label=<width &le; 111.5<br/>gini = 0.142<br/>samples = 26<br/>value = [0, 0, 0, 24, 0, 0, 0, 0, 0, 0, 0, 2, 0, 0<br/>0, 0, 0]>, fillcolor="#9ee749"] ;
154 -> 155 ;
156 [label=<gini = 0.0<br/>samples = 17<br/>value = [0, 0, 0, 17, 0, 0, 0, 0, 0, 0, 0, 0, 0, 0<br/>0, 0, 0]>, fillcolor="#95e539"] ;
155 -> 156 ;
157 [label=<gini = 0.346<br/>samples = 9<br/>value = [0, 0, 0, 7, 0, 0, 0, 0, 0, 0, 0, 2, 0, 0<br/>0, 0, 0]>, fillcolor="#b3ec72"] ;
155 -> 157 ;
158 [label=<gini = 0.5<br/>samples = 2<br/>value = [0, 0, 0, 1, 0, 0, 0, 0, 0, 0, 0, 0, 0, 0<br/>0, 0, 1]>, fillcolor="#ffffff"] ;
154 -> 158 ;
159 [label=<depth &le; 30.5<br/>gini = 0.823<br/>samples = 125<br/>value = [0, 0, 0, 0, 2, 17, 3, 40, 22, 9, 2, 1, 0, 3<br/>12, 2, 12]>, fillcolor="#dcfaf7"] ;
55 -> 159 ;
160 [label=<depth &le; 28.946<br/>gini = 0.519<br/>samples = 57<br/>value = [0, 0, 0, 0, 2, 1, 1, 38, 10, 0, 0, 0, 0, 0<br/>3, 2, 0]>, fillcolor="#89f0e4"] ;
159 -> 160 ;
161 [label=<gini = 0.796<br/>samples = 17<br/>value = [0, 0, 0, 0, 2, 1, 0, 5, 4, 0, 0, 0, 0, 0<br/>3, 2, 0]>, fillcolor="#f0fdfb"] ;
160 -> 161 ;
162 [label=<depth &le; 29.946<br/>gini = 0.296<br/>samples = 40<br/>value = [0, 0, 0, 0, 0, 0, 1, 33, 6, 0, 0, 0, 0, 0<br/>0, 0, 0]>, fillcolor="#62eada"] ;
160 -> 162 ;
163 [label=<gini = 0.0<br/>samples = 24<br/>value = [0, 0, 0, 0, 0, 0, 0, 24, 0, 0, 0, 0, 0, 0<br/>0, 0, 0]>, fillcolor="#39e5d1"] ;
162 -> 163 ;
164 [label=<gini = 0.539<br/>samples = 16<br/>value = [0, 0, 0, 0, 0, 0, 1, 9, 6, 0, 0, 0, 0, 0<br/>0, 0, 0]>, fillcolor="#c4f7f1"] ;
162 -> 164 ;
165 [label=<height &le; 181.5<br/>gini = 0.843<br/>samples = 68<br/>value = [0, 0, 0, 0, 0, 16, 2, 2, 12, 9, 2, 1, 0, 3<br/>9, 0, 12]>, fillcolor="#f1fdf3"] ;
159 -> 165 ;
166 [label=<name &le; 297.5<br/>gini = 0.814<br/>samples = 56<br/>value = [0, 0, 0, 0, 0, 16, 2, 2, 12, 9, 2, 1, 0, 3<br/>9, 0, 0]>, fillcolor="#edfdf0"] ;
165 -> 166 ;
167 [label=<gini = 0.346<br/>samples = 18<br/>value = [0, 0, 0, 0, 0, 14, 0, 0, 4, 0, 0, 0, 0, 0<br/>0, 0, 0]>, fillcolor="#72ec86"] ;
166 -> 167 ;
168 [label=<name &le; 452.5<br/>gini = 0.825<br/>samples = 38<br/>value = [0, 0, 0, 0, 0, 2, 2, 2, 8, 9, 2, 1, 0, 3<br/>9, 0, 0]>, fillcolor="#ffffff"] ;
166 -> 168 ;
169 [label=<name &le; 410.0<br/>gini = 0.797<br/>samples = 29<br/>value = [0, 0, 0, 0, 0, 2, 2, 2, 8, 9, 2, 1, 0, 0<br/>3, 0, 0]>, fillcolor="#f6f9fe"] ;
168 -> 169 ;
170 [label=<gini = 0.735<br/>samples = 18<br/>value = [0, 0, 0, 0, 0, 2, 2, 2, 8, 1, 0, 0, 0, 0<br/>3, 0, 0]>, fillcolor="#bde9f6"] ;
169 -> 170 ;
171 [label=<gini = 0.43<br/>samples = 11<br/>value = [0, 0, 0, 0, 0, 0, 0, 0, 0, 8, 2, 1, 0, 0<br/>0, 0, 0]>, fillcolor="#7babee"] ;
169 -> 171 ;
172 [label=<gini = 0.444<br/>samples = 9<br/>value = [0, 0, 0, 0, 0, 0, 0, 0, 0, 0, 0, 0, 0, 3<br/>6, 0, 0]>, fillcolor="#f29cd4"] ;
168 -> 172 ;
173 [label=<gini = 0.0<br/>samples = 12<br/>value = [0, 0, 0, 0, 0, 0, 0, 0, 0, 0, 0, 0, 0, 0<br/>0, 0, 12]>, fillcolor="#e54139"] ;
165 -> 173 ;
174 [label=<depth &le; 45.363<br/>gini = 0.804<br/>samples = 1132<br/>value = [31, 27, 64, 36, 1, 27, 77, 31, 22, 139, 2, 5<br/>50, 9, 434, 19, 158]>, fillcolor="#f8c7e7"] ;
36 -> 174 ;
175 [label=<depth &le; 44.5<br/>gini = 0.275<br/>samples = 460<br/>value = [5, 1, 2, 11, 0, 9, 5, 11, 6, 5, 0, 1, 0, 0<br/>391, 0, 13]>, fillcolor="#e958b6"] ;
174 -> 175 ;
176 [label=<height &le; 177.0<br/>gini = 0.813<br/>samples = 47<br/>value = [3, 0, 0, 0, 0, 7, 2, 11, 6, 5, 0, 0, 0, 0<br/>0, 0, 13]>, fillcolor="#fef4f4"] ;
175 -> 176 ;
177 [label=<designer &le; 195.0<br/>gini = 0.789<br/>samples = 34<br/>value = [3, 0, 0, 0, 0, 7, 2, 11, 6, 5, 0, 0, 0, 0<br/>0, 0, 0]>, fillcolor="#e2fbf8"] ;
176 -> 177 ;
178 [label=<gini = 0.695<br/>samples = 16<br/>value = [3, 0, 0, 0, 0, 7, 2, 0, 0, 4, 0, 0, 0, 0<br/>0, 0, 0]>, fillcolor="#cef8d5"] ;
177 -> 178 ;
179 [label=<gini = 0.512<br/>samples = 18<br/>value = [0, 0, 0, 0, 0, 0, 0, 11, 6, 1, 0, 0, 0, 0<br/>0, 0, 0]>, fillcolor="#acf4ec"] ;
177 -> 179 ;
180 [label=<gini = 0.0<br/>samples = 13<br/>value = [0, 0, 0, 0, 0, 0, 0, 0, 0, 0, 0, 0, 0, 0<br/>0, 0, 13]>, fillcolor="#e54139"] ;
176 -> 180 ;
181 [label=<height &le; 79.0<br/>gini = 0.103<br/>samples = 413<br/>value = [2, 1, 2, 11, 0, 2, 3, 0, 0, 0, 0, 1, 0, 0<br/>391, 0, 0]>, fillcolor="#e644ae"] ;
175 -> 181 ;
182 [label=<width &le; 43.0<br/>gini = 0.016<br/>samples = 374<br/>value = [0, 1, 0, 0, 0, 0, 2, 0, 0, 0, 0, 0, 0, 0<br/>371, 0, 0]>, fillcolor="#e53baa"] ;
181 -> 182 ;
183 [label=<price &le; 874.5<br/>gini = 0.147<br/>samples = 25<br/>value = [0, 0, 0, 0, 0, 0, 2, 0, 0, 0, 0, 0, 0, 0<br/>23, 0, 0]>, fillcolor="#e74ab0"] ;
182 -> 183 ;
184 [label=<gini = 0.0<br/>samples = 19<br/>value = [0, 0, 0, 0, 0, 0, 0, 0, 0, 0, 0, 0, 0, 0<br/>19, 0, 0]>, fillcolor="#e539a9"] ;
183 -> 184 ;
185 [label=<gini = 0.444<br/>samples = 6<br/>value = [0, 0, 0, 0, 0, 0, 2, 0, 0, 0, 0, 0, 0, 0<br/>4, 0, 0]>, fillcolor="#f29cd4"] ;
183 -> 185 ;
186 [label=<name &le; 68.0<br/>gini = 0.006<br/>samples = 349<br/>value = [0, 1, 0, 0, 0, 0, 0, 0, 0, 0, 0, 0, 0, 0<br/>348, 0, 0]>, fillcolor="#e53aa9"] ;
182 -> 186 ;
187 [label=<name &le; 61.0<br/>gini = 0.059<br/>samples = 33<br/>value = [0, 1, 0, 0, 0, 0, 0, 0, 0, 0, 0, 0, 0, 0<br/>32, 0, 0]>, fillcolor="#e63fac"] ;
186 -> 187 ;
188 [label=<gini = 0.0<br/>samples = 32<br/>value = [0, 0, 0, 0, 0, 0, 0, 0, 0, 0, 0, 0, 0, 0<br/>32, 0, 0]>, fillcolor="#e539a9"] ;
187 -> 188 ;
189 [label=<gini = 0.0<br/>samples = 1<br/>value = [0, 1, 0, 0, 0, 0, 0, 0, 0, 0, 0, 0, 0, 0<br/>0, 0, 0]>, fillcolor="#e5bd39"] ;
187 -> 189 ;
190 [label=<gini = 0.0<br/>samples = 316<br/>value = [0, 0, 0, 0, 0, 0, 0, 0, 0, 0, 0, 0, 0, 0<br/>316, 0, 0]>, fillcolor="#e539a9"] ;
186 -> 190 ;
191 [label=<price &le; 2032.5<br/>gini = 0.648<br/>samples = 39<br/>value = [2, 0, 2, 11, 0, 2, 1, 0, 0, 0, 0, 1, 0, 0<br/>20, 0, 0]>, fillcolor="#f7bfe3"] ;
181 -> 191 ;
192 [label=<width &le; 40.5<br/>gini = 0.611<br/>samples = 34<br/>value = [2, 0, 2, 6, 0, 2, 1, 0, 0, 0, 0, 1, 0, 0<br/>20, 0, 0]>, fillcolor="#f29cd4"] ;
191 -> 192 ;
193 [label=<gini = 0.64<br/>samples = 5<br/>value = [2, 0, 0, 0, 0, 2, 0, 0, 0, 0, 0, 0, 0, 0<br/>1, 0, 0]>, fillcolor="#ffffff"] ;
192 -> 193 ;
194 [label=<designer &le; 21.0<br/>gini = 0.521<br/>samples = 29<br/>value = [0, 0, 2, 6, 0, 0, 1, 0, 0, 0, 0, 1, 0, 0<br/>19, 0, 0]>, fillcolor="#f08fce"] ;
192 -> 194 ;
195 [label=<gini = 0.0<br/>samples = 10<br/>value = [0, 0, 0, 0, 0, 0, 0, 0, 0, 0, 0, 0, 0, 0<br/>10, 0, 0]>, fillcolor="#e539a9"] ;
194 -> 195 ;
196 [label=<gini = 0.659<br/>samples = 19<br/>value = [0, 0, 2, 6, 0, 0, 1, 0, 0, 0, 0, 1, 0, 0<br/>9, 0, 0]>, fillcolor="#f9d1eb"] ;
194 -> 196 ;
197 [label=<gini = 0.0<br/>samples = 5<br/>value = [0, 0, 0, 5, 0, 0, 0, 0, 0, 0, 0, 0, 0, 0<br/>0, 0, 0]>, fillcolor="#95e539"] ;
191 -> 197 ;
198 [label=<height &le; 200.0<br/>gini = 0.876<br/>samples = 672<br/>value = [26, 26, 62, 25, 1, 18, 72, 20, 16, 134, 2, 4<br/>50, 9, 43, 19, 145]>, fillcolor="#fefbfb"] ;
174 -> 198 ;
199 [label=<name &le; 402.5<br/>gini = 0.881<br/>samples = 537<br/>value = [26, 26, 54, 22, 1, 18, 72, 20, 16, 134, 2, 4<br/>50, 6, 43, 19, 24]>, fillcolor="#e5eefc"] ;
198 -> 199 ;
200 [label=<price &le; 2128.0<br/>gini = 0.899<br/>samples = 393<br/>value = [26, 26, 54, 22, 1, 18, 72, 19, 16, 19, 0, 4<br/>50, 6, 39, 4, 17]>, fillcolor="#f4fef9"] ;
199 -> 200 ;
201 [label=<name &le; 25.0<br/>gini = 0.886<br/>samples = 328<br/>value = [23, 20, 54, 21, 1, 17, 72, 19, 16, 13, 0, 4, 5<br/>6, 36, 4, 17]>, fillcolor="#f2fdf8"] ;
200 -> 201 ;
202 [label=<depth &le; 46.152<br/>gini = 0.555<br/>samples = 39<br/>value = [23, 0, 0, 0, 1, 12, 0, 0, 0, 1, 0, 0, 0, 0<br/>1, 1, 0]>, fillcolor="#f4ccae"] ;
201 -> 202 ;
203 [label=<gini = 0.0<br/>samples = 14<br/>value = [14, 0, 0, 0, 0, 0, 0, 0, 0, 0, 0, 0, 0, 0<br/>0, 0, 0]>, fillcolor="#e58139"] ;
202 -> 203 ;
204 [label=<height &le; 84.0<br/>gini = 0.634<br/>samples = 25<br/>value = [9, 0, 0, 0, 1, 12, 0, 0, 0, 1, 0, 0, 0, 0<br/>1, 1, 0]>, fillcolor="#dafadf"] ;
202 -> 204 ;
205 [label=<gini = 0.667<br/>samples = 3<br/>value = [0, 0, 0, 0, 0, 0, 0, 0, 0, 1, 0, 0, 0, 0<br/>1, 1, 0]>, fillcolor="#ffffff"] ;
204 -> 205 ;
206 [label=<width &le; 44.5<br/>gini = 0.533<br/>samples = 22<br/>value = [9, 0, 0, 0, 1, 12, 0, 0, 0, 0, 0, 0, 0, 0<br/>0, 0, 0]>, fillcolor="#d1f9d8"] ;
204 -> 206 ;
207 [label=<gini = 0.498<br/>samples = 17<br/>value = [8, 0, 0, 0, 0, 9, 0, 0, 0, 0, 0, 0, 0, 0<br/>0, 0, 0]>, fillcolor="#e9fcec"] ;
206 -> 207 ;
208 [label=<gini = 0.56<br/>samples = 5<br/>value = [1, 0, 0, 0, 1, 3, 0, 0, 0, 0, 0, 0, 0, 0<br/>0, 0, 0]>, fillcolor="#9cf2aa"] ;
206 -> 208 ;
209 [label=<depth &le; 49.5<br/>gini = 0.864<br/>samples = 289<br/>value = [0, 20, 54, 21, 0, 5, 72, 19, 16, 12, 0, 4, 5<br/>6, 35, 3, 17]>, fillcolor="#f0fdf7"] ;
201 -> 209 ;
210 [label=<name &le; 82.0<br/>gini = 0.654<br/>samples = 85<br/>value = [0, 0, 0, 20, 0, 1, 45, 0, 0, 0, 0, 4, 0, 5<br/>3, 3, 4]>, fillcolor="#b3f5d6"] ;
209 -> 210 ;
211 [label=<designer &le; 5.5<br/>gini = 0.188<br/>samples = 40<br/>value = [0, 0, 0, 1, 0, 0, 36, 0, 0, 0, 0, 1, 0, 1<br/>1, 0, 0]>, fillcolor="#4de8a0"] ;
210 -> 211 ;
212 [label=<gini = 0.667<br/>samples = 3<br/>value = [0, 0, 0, 1, 0, 0, 0, 0, 0, 0, 0, 1, 0, 1<br/>0, 0, 0]>, fillcolor="#ffffff"] ;
211 -> 212 ;
213 [label=<name &le; 35.5<br/>gini = 0.053<br/>samples = 37<br/>value = [0, 0, 0, 0, 0, 0, 36, 0, 0, 0, 0, 0, 0, 0<br/>1, 0, 0]>, fillcolor="#3ee698"] ;
211 -> 213 ;
214 [label=<gini = 0.375<br/>samples = 4<br/>value = [0, 0, 0, 0, 0, 0, 3, 0, 0, 0, 0, 0, 0, 0<br/>1, 0, 0]>, fillcolor="#7beeb8"] ;
213 -> 214 ;
215 [label=<gini = 0.0<br/>samples = 33<br/>value = [0, 0, 0, 0, 0, 0, 33, 0, 0, 0, 0, 0, 0, 0<br/>0, 0, 0]>, fillcolor="#39e595"] ;
213 -> 215 ;
216 [label=<height &le; 116.5<br/>gini = 0.755<br/>samples = 45<br/>value = [0, 0, 0, 19, 0, 1, 9, 0, 0, 0, 0, 3, 0, 4<br/>2, 3, 4]>, fillcolor="#e2f8c8"] ;
210 -> 216 ;
217 [label=<name &le; 193.5<br/>gini = 0.79<br/>samples = 26<br/>value = [0, 0, 0, 5, 0, 1, 9, 0, 0, 0, 0, 3, 0, 4<br/>1, 3, 0]>, fillcolor="#d9faeb"] ;
216 -> 217 ;
218 [label=<gini = 0.756<br/>samples = 15<br/>value = [0, 0, 0, 5, 0, 0, 1, 0, 0, 0, 0, 3, 0, 4<br/>0, 2, 0]>, fillcolor="#f5fded"] ;
217 -> 218 ;
219 [label=<gini = 0.446<br/>samples = 11<br/>value = [0, 0, 0, 0, 0, 1, 8, 0, 0, 0, 0, 0, 0, 0<br/>1, 1, 0]>, fillcolor="#74edb5"] ;
217 -> 219 ;
220 [label=<gini = 0.41<br/>samples = 19<br/>value = [0, 0, 0, 14, 0, 0, 0, 0, 0, 0, 0, 0, 0, 0<br/>1, 0, 4]>, fillcolor="#b8ee7b"] ;
216 -> 220 ;
221 [label=<name &le; 97.5<br/>gini = 0.855<br/>samples = 204<br/>value = [0, 20, 54, 1, 0, 4, 27, 19, 16, 12, 0, 0, 5<br/>1, 32, 0, 13]>, fillcolor="#f9fce6"] ;
209 -> 221 ;
222 [label=<depth &le; 52.5<br/>gini = 0.842<br/>samples = 88<br/>value = [0, 20, 0, 0, 0, 2, 14, 13, 15, 0, 0, 0, 5, 0<br/>6, 0, 13]>, fillcolor="#fdfaf1"] ;
221 -> 222 ;
223 [label=<height &le; 135.0<br/>gini = 0.784<br/>samples = 50<br/>value = [0, 1, 0, 0, 0, 2, 10, 12, 13, 0, 0, 0, 0, 0<br/>1, 0, 11]>, fillcolor="#fafdfe"] ;
222 -> 223 ;
224 [label=<designer &le; 17.0<br/>gini = 0.754<br/>samples = 27<br/>value = [0, 1, 0, 0, 0, 2, 10, 6, 6, 0, 0, 0, 0, 0<br/>1, 0, 1]>, fillcolor="#d9faeb"] ;
223 -> 224 ;
225 [label=<gini = 0.0<br/>samples = 6<br/>value = [0, 0, 0, 0, 0, 0, 6, 0, 0, 0, 0, 0, 0, 0<br/>0, 0, 0]>, fillcolor="#39e595"] ;
224 -> 225 ;
226 [label=<width &le; 75.0<br/>gini = 0.785<br/>samples = 21<br/>value = [0, 1, 0, 0, 0, 2, 4, 6, 6, 0, 0, 0, 0, 0<br/>1, 0, 1]>, fillcolor="#ffffff"] ;
224 -> 226 ;
227 [label=<gini = 0.704<br/>samples = 14<br/>value = [0, 0, 0, 0, 0, 0, 4, 4, 5, 0, 0, 0, 0, 0<br/>0, 0, 1]>, fillcolor="#ebf8fc"] ;
226 -> 227 ;
228 [label=<gini = 0.776<br/>samples = 7<br/>value = [0, 1, 0, 0, 0, 2, 0, 2, 1, 0, 0, 0, 0, 0<br/>1, 0, 0]>, fillcolor="#ffffff"] ;
226 -> 228 ;
229 [label=<name &le; 26.5<br/>gini = 0.65<br/>samples = 23<br/>value = [0, 0, 0, 0, 0, 0, 0, 6, 7, 0, 0, 0, 0, 0<br/>0, 0, 10]>, fillcolor="#fadbda"] ;
223 -> 229 ;
230 [label=<gini = 0.0<br/>samples = 2<br/>value = [0, 0, 0, 0, 0, 0, 0, 0, 0, 0, 0, 0, 0, 0<br/>0, 0, 2]>, fillcolor="#e54139"] ;
229 -> 230 ;
231 [label=<designer &le; 36.5<br/>gini = 0.662<br/>samples = 21<br/>value = [0, 0, 0, 0, 0, 0, 0, 6, 7, 0, 0, 0, 0, 0<br/>0, 0, 8]>, fillcolor="#fdf1f1"] ;
229 -> 231 ;
232 [label=<gini = 0.651<br/>samples = 17<br/>value = [0, 0, 0, 0, 0, 0, 0, 4, 6, 0, 0, 0, 0, 0<br/>0, 0, 7]>, fillcolor="#fdeeed"] ;
231 -> 232 ;
233 [label=<gini = 0.625<br/>samples = 4<br/>value = [0, 0, 0, 0, 0, 0, 0, 2, 1, 0, 0, 0, 0, 0<br/>0, 0, 1]>, fillcolor="#bdf6f0"] ;
231 -> 233 ;
234 [label=<width &le; 92.5<br/>gini = 0.698<br/>samples = 38<br/>value = [0, 19, 0, 0, 0, 0, 4, 1, 2, 0, 0, 0, 5, 0<br/>5, 0, 2]>, fillcolor="#f4e3ab"] ;
222 -> 234 ;
235 [label=<gini = 0.806<br/>samples = 14<br/>value = [0, 3, 0, 0, 0, 0, 4, 1, 2, 0, 0, 0, 2, 0<br/>2, 0, 0]>, fillcolor="#edfdf5"] ;
234 -> 235 ;
236 [label=<height &le; 150.5<br/>gini = 0.517<br/>samples = 24<br/>value = [0, 16, 0, 0, 0, 0, 0, 0, 0, 0, 0, 0, 3, 0<br/>3, 0, 2]>, fillcolor="#efd684"] ;
234 -> 236 ;
237 [label=<depth &le; 64.5<br/>gini = 0.434<br/>samples = 22<br/>value = [0, 16, 0, 0, 0, 0, 0, 0, 0, 0, 0, 0, 3, 0<br/>3, 0, 0]>, fillcolor="#edd278"] ;
236 -> 237 ;
238 [label=<gini = 0.0<br/>samples = 12<br/>value = [0, 12, 0, 0, 0, 0, 0, 0, 0, 0, 0, 0, 0, 0<br/>0, 0, 0]>, fillcolor="#e5bd39"] ;
237 -> 238 ;
239 [label=<gini = 0.66<br/>samples = 10<br/>value = [0, 4, 0, 0, 0, 0, 0, 0, 0, 0, 0, 0, 3, 0<br/>3, 0, 0]>, fillcolor="#fbf6e3"] ;
237 -> 239 ;
240 [label=<gini = 0.0<br/>samples = 2<br/>value = [0, 0, 0, 0, 0, 0, 0, 0, 0, 0, 0, 0, 0, 0<br/>0, 0, 2]>, fillcolor="#e54139"] ;
236 -> 240 ;
241 [label=<name &le; 146.5<br/>gini = 0.707<br/>samples = 116<br/>value = [0, 0, 54, 1, 0, 2, 13, 6, 1, 12, 0, 0, 0, 1<br/>26, 0, 0]>, fillcolor="#f1f7c1"] ;
221 -> 241 ;
242 [label=<height &le; 107.0<br/>gini = 0.366<br/>samples = 69<br/>value = [0, 0, 54, 0, 0, 0, 8, 0, 0, 0, 0, 0, 0, 1<br/>6, 0, 0]>, fillcolor="#dceb6a"] ;
241 -> 242 ;
243 [label=<depth &le; 51.5<br/>gini = 0.589<br/>samples = 30<br/>value = [0, 0, 17, 0, 0, 0, 8, 0, 0, 0, 0, 0, 0, 1<br/>4, 0, 0]>, fillcolor="#ecf4ae"] ;
242 -> 243 ;
244 [label=<price &le; 95.0<br/>gini = 0.454<br/>samples = 23<br/>value = [0, 0, 15, 0, 0, 0, 8, 0, 0, 0, 0, 0, 0, 0<br/>0, 0, 0]>, fillcolor="#eaf3a3"] ;
243 -> 244 ;
245 [label=<gini = 0.0<br/>samples = 6<br/>value = [0, 0, 6, 0, 0, 0, 0, 0, 0, 0, 0, 0, 0, 0<br/>0, 0, 0]>, fillcolor="#d1e539"] ;
244 -> 245 ;
246 [label=<gini = 0.498<br/>samples = 17<br/>value = [0, 0, 9, 0, 0, 0, 8, 0, 0, 0, 0, 0, 0, 0<br/>0, 0, 0]>, fillcolor="#fafce9"] ;
244 -> 246 ;
247 [label=<gini = 0.571<br/>samples = 7<br/>value = [0, 0, 2, 0, 0, 0, 0, 0, 0, 0, 0, 0, 0, 1<br/>4, 0, 0]>, fillcolor="#f5b0dd"] ;
243 -> 247 ;
248 [label=<depth &le; 110.0<br/>gini = 0.097<br/>samples = 39<br/>value = [0, 0, 37, 0, 0, 0, 0, 0, 0, 0, 0, 0, 0, 0<br/>2, 0, 0]>, fillcolor="#d3e644"] ;
242 -> 248 ;
249 [label=<gini = 0.0<br/>samples = 35<br/>value = [0, 0, 35, 0, 0, 0, 0, 0, 0, 0, 0, 0, 0, 0<br/>0, 0, 0]>, fillcolor="#d1e539"] ;
248 -> 249 ;
250 [label=<gini = 0.5<br/>samples = 4<br/>value = [0, 0, 2, 0, 0, 0, 0, 0, 0, 0, 0, 0, 0, 0<br/>2, 0, 0]>, fillcolor="#ffffff"] ;
248 -> 250 ;
251 [label=<price &le; 152.0<br/>gini = 0.723<br/>samples = 47<br/>value = [0, 0, 0, 1, 0, 2, 5, 6, 1, 12, 0, 0, 0, 0<br/>20, 0, 0]>, fillcolor="#f9d2eb"] ;
241 -> 251 ;
252 [label=<gini = 0.0<br/>samples = 7<br/>value = [0, 0, 0, 0, 0, 0, 0, 0, 0, 7, 0, 0, 0, 0<br/>0, 0, 0]>, fillcolor="#3981e5"] ;
251 -> 252 ;
253 [label=<height &le; 76.205<br/>gini = 0.692<br/>samples = 40<br/>value = [0, 0, 0, 1, 0, 2, 5, 6, 1, 5, 0, 0, 0, 0<br/>20, 0, 0]>, fillcolor="#f4addc"] ;
251 -> 253 ;
254 [label=<width &le; 59.0<br/>gini = 0.405<br/>samples = 23<br/>value = [0, 0, 0, 0, 0, 0, 5, 1, 0, 0, 0, 0, 0, 0<br/>17, 0, 0]>, fillcolor="#ee7bc6"] ;
253 -> 254 ;
255 [label=<gini = 0.408<br/>samples = 7<br/>value = [0, 0, 0, 0, 0, 0, 5, 0, 0, 0, 0, 0, 0, 0<br/>2, 0, 0]>, fillcolor="#88efbf"] ;
254 -> 255 ;
256 [label=<gini = 0.117<br/>samples = 16<br/>value = [0, 0, 0, 0, 0, 0, 0, 1, 0, 0, 0, 0, 0, 0<br/>15, 0, 0]>, fillcolor="#e746af"] ;
254 -> 256 ;
257 [label=<gini = 0.775<br/>samples = 17<br/>value = [0, 0, 0, 1, 0, 2, 0, 5, 1, 5, 0, 0, 0, 0<br/>3, 0, 0]>, fillcolor="#ffffff"] ;
253 -> 257 ;
258 [label=<width &le; 75.12<br/>gini = 0.499<br/>samples = 65<br/>value = [3, 6, 0, 1, 0, 1, 0, 0, 0, 6, 0, 0, 45, 0<br/>3, 0, 0]>, fillcolor="#c67cee"] ;
200 -> 258 ;
259 [label=<gini = 0.612<br/>samples = 7<br/>value = [3, 0, 0, 0, 0, 0, 0, 0, 0, 1, 0, 0, 0, 0<br/>3, 0, 0]>, fillcolor="#ffffff"] ;
258 -> 259 ;
260 [label=<designer &le; 21.5<br/>gini = 0.379<br/>samples = 58<br/>value = [0, 6, 0, 1, 0, 1, 0, 0, 0, 5, 0, 0, 45, 0<br/>0, 0, 0]>, fillcolor="#be6aec"] ;
258 -> 260 ;
261 [label=<gini = 0.0<br/>samples = 28<br/>value = [0, 0, 0, 0, 0, 0, 0, 0, 0, 0, 0, 0, 28, 0<br/>0, 0, 0]>, fillcolor="#a939e5"] ;
260 -> 261 ;
262 [label=<name &le; 143.5<br/>gini = 0.609<br/>samples = 30<br/>value = [0, 6, 0, 1, 0, 1, 0, 0, 0, 5, 0, 0, 17, 0<br/>0, 0, 0]>, fillcolor="#d8a4f3"] ;
260 -> 262 ;
263 [label=<gini = 0.432<br/>samples = 19<br/>value = [0, 6, 0, 0, 0, 0, 0, 0, 0, 0, 0, 0, 13, 0<br/>0, 0, 0]>, fillcolor="#d194f1"] ;
262 -> 263 ;
264 [label=<gini = 0.645<br/>samples = 11<br/>value = [0, 0, 0, 1, 0, 1, 0, 0, 0, 5, 0, 0, 4, 0<br/>0, 0, 0]>, fillcolor="#e3edfb"] ;
262 -> 264 ;
265 [label=<name &le; 445.0<br/>gini = 0.348<br/>samples = 144<br/>value = [0, 0, 0, 0, 0, 0, 0, 1, 0, 115, 2, 0, 0, 0<br/>4, 15, 7]>, fillcolor="#669deb"] ;
199 -> 265 ;
266 [label=<name &le; 406.5<br/>gini = 0.017<br/>samples = 116<br/>value = [0, 0, 0, 0, 0, 0, 0, 1, 0, 115, 0, 0, 0, 0<br/>0, 0, 0]>, fillcolor="#3b82e5"] ;
265 -> 266 ;
267 [label=<gini = 0.5<br/>samples = 2<br/>value = [0, 0, 0, 0, 0, 0, 0, 1, 0, 1, 0, 0, 0, 0<br/>0, 0, 0]>, fillcolor="#ffffff"] ;
266 -> 267 ;
268 [label=<gini = 0.0<br/>samples = 114<br/>value = [0, 0, 0, 0, 0, 0, 0, 0, 0, 114, 0, 0, 0, 0<br/>0, 0, 0]>, fillcolor="#3981e5"] ;
266 -> 268 ;
269 [label=<height &le; 111.5<br/>gini = 0.625<br/>samples = 28<br/>value = [0, 0, 0, 0, 0, 0, 0, 0, 0, 0, 2, 0, 0, 0<br/>4, 15, 7]>, fillcolor="#f5b4c7"] ;
265 -> 269 ;
270 [label=<gini = 0.278<br/>samples = 18<br/>value = [0, 0, 0, 0, 0, 0, 0, 0, 0, 0, 0, 0, 0, 0<br/>3, 15, 0]>, fillcolor="#ea618a"] ;
269 -> 270 ;
271 [label=<gini = 0.46<br/>samples = 10<br/>value = [0, 0, 0, 0, 0, 0, 0, 0, 0, 0, 2, 0, 0, 0<br/>1, 0, 7]>, fillcolor="#ef8883"] ;
269 -> 271 ;
272 [label=<name &le; 268.5<br/>gini = 0.192<br/>samples = 135<br/>value = [0, 0, 8, 3, 0, 0, 0, 0, 0, 0, 0, 0, 0, 3<br/>0, 0, 121]>, fillcolor="#e8564f"] ;
198 -> 272 ;
273 [label=<depth &le; 53.3<br/>gini = 0.684<br/>samples = 24<br/>value = [0, 0, 8, 3, 0, 0, 0, 0, 0, 0, 0, 0, 0, 3<br/>0, 0, 10]>, fillcolor="#fce7e6"] ;
272 -> 273 ;
274 [label=<gini = 0.582<br/>samples = 14<br/>value = [0, 0, 8, 3, 0, 0, 0, 0, 0, 0, 0, 0, 0, 3<br/>0, 0, 0]>, fillcolor="#eaf3a5"] ;
273 -> 274 ;
275 [label=<gini = 0.0<br/>samples = 10<br/>value = [0, 0, 0, 0, 0, 0, 0, 0, 0, 0, 0, 0, 0, 0<br/>0, 0, 10]>, fillcolor="#e54139"] ;
273 -> 275 ;
276 [label=<gini = 0.0<br/>samples = 111<br/>value = [0, 0, 0, 0, 0, 0, 0, 0, 0, 0, 0, 0, 0, 0<br/>0, 0, 111]>, fillcolor="#e54139"] ;
272 -> 276 ;
}